algorithms	-0.00273496575036	0.00712659748206	-0.0297943646244	0.0747872476068	0.0490249108902	0.119351816461	0.053615073801	0.0122397395238	-0.0140655706337	-0.0178114240578	0.0453861359981	0.036826486623	0.0479256976415	0.0328854280875	-0.0018788965771	0.0384857300699	-0.0289045704516	-0.0487273652349	-0.0717814679303	0.029510085336	-0.00272644684768	-0.000270444363075	0.0866312703611	0.092350022047	-0.0828124519197	0.00928001309204	0.00127063365959	-0.0196585761144	0.0831175783559	-0.0176257896825	-0.0479844486945	-0.0745967804836	0.0287775923694	-0.0872206760858	-0.00214488723133	0.113715505769	-0.0421008150213	-0.0215991612971	-0.0208159718574	-0.0212290296635	-0.124907581355	-0.00226717470524	-0.0670103138726	-0.00639457831431	-0.0620913345848	-0.173666217312	0.0592892883984	-0.0450288916923	-0.0742963920354	0.00296825481043	0.165087615984	-0.0153939129889	0.0268748163321	-0.00848696863704	-0.00773969314748	-0.0618857058995	-0.0744233701176	-0.0259018230875	0.0225604043311	0.0146182095705	0.010228084519	-0.0198047904284	-0.0250819616196	0.0341267809803	-0.034767356977	0.059002166317	-0.0965440891492	-0.0346991299478	0.00146201995255	-0.1719529608	0.0310480362865	-0.00461502787254	-0.00678072434778	-0.119294960604	-0.0131192996423	0.0122103639973	-0.0252885379026	-0.0351246012828	-0.0410641432161	0.0270794974198	0.0981351055669	-0.0134121073094	0.0139778230934	-0.0249957302355	0.0345844706347	-0.00536700344634	-0.0191990860245	-0.0378574728424	0.0232893911864	-0.0101424216934	-0.0315654245914	-0.0341694228736	-0.023336297269	0.0145009917439	0.0145082882456	0.102694945354	-0.0733734319456	0.0331678121807	-0.0292779239171	0.0604254579545	0.0946432083072	0.043189604696	0.0365327313582	-0.0204851655254	0.0664389125028	-0.0413180993804	-0.00291235602635	-0.00170863223528	0.00597782487745	-0.0906841454167	-0.0445816256118	-0.0490770287597	-0.0666502267739	-0.0918639044638	0.0753131642904	0.011069077414	0.00641551074592	0.0663469955329	0.0465744234238	0.0496616964963	-0.069294971754	-0.0476224664005	0.010183357911	0.0482355620659	-0.0682999942445	0.137985376221	0.0682601951441	0.0400274714109	-0.0139932689347	0.0633137355251	-0.0381720752549	-0.0306509928803	0.0558940460967	0.0259878649521	0.0260731487387	-0.0681389026477	-0.0746811166725	0.0776044553553	-0.0872235188787	0.00349360293548	0.04296028607	0.0619956272244	-0.103910713111	0.0238851458153	0.0346508024687	-0.0295489368387	0.00318705510277	0.0751113259956	-0.00364630829326	-0.0237231066208	-0.0367648927771	0.0276565843753	0.0760854563574	0.0156372560598	-0.0100392283117	-0.0150185695684	0.123390477552	0.121796618342	0.0459357426224	0.00730218732256	0.0458997339125	0.110909669192	0.0820486882314	0.0549170729421	-0.061660177664	0.0573467132606	0.0554287756613	-0.00932511873914	0.00613654748016	0.0603212222154	0.0904699883528	0.00443428310095	-0.024966354709	-0.0580792062272	-0.00715047694229	-0.0589851095597	-0.00976679399362	-0.158801253319	0.0916791229263	-0.0432104518438	-0.0166268322629	-0.0952487231916	-0.116885219835	-0.0241931150444	-0.000810935098222	0.106989457804	-0.0176141342317	-0.0821690331301	0.00957073604436	0.0401250739666	0.048191972575	0.0207211173348	-0.0846830096376	0.0144081271763	0.0269041918586	-0.00151265009382	0.0624002514116	-0.00880450860223	0.0494030023438	-0.0388211796302	-0.0116365936335	0.0657632753939	0.0927015807671	-0.0564010108277	0.086445541226	-0.0266246505583	-0.0227391212438	-0.0245622043206	-0.015139767305	0.0783795902152	-0.0667137158149	0.00835980103534	-0.0170207485969	0.0496105262244	0.00602893260793	0.0363896441164	-0.0383028437276	-0.0115768002232	0.0464986156135	0.0291367318705	-0.0311608004042	-0.060676571326	-0.107573177943	0.0493973167581	-0.128931080884	0.0449853022014	-0.00363725873591	0.0555462777671	0.0526475766226	-0.0677399640462	-0.110588433596	0.0824760547617	0.105677035089	-0.05351557605	0.0045692210032	0.0324485855809	0.060144021459	0.0190361939922	-0.0657111575244	-0.052661790587	-0.0683246317828	-0.0537875365693	-0.077587398598	-0.0547531385524	0.0415218328705	-0.045462891406	0.0149317696256	-0.052531969712	-0.00132553746617	-0.0566559145897	0.00562437096215	-0.0828503558248	-0.0631175828161	-0.127794911328	0.0235421154739	0.0316128044729	0.0521491402702	0.0357045310312	-0.0582867301078	0.0237684017875	0.0334596722501	0.0195333984677	0.130037874914	-0.0260579871766	-0.012234053938	0.0321159788134	0.0266492880966	0.00339551047181	0.111970030938	0.131790930526	-0.0382867345679	-0.0160832902634	-0.0275277110979	-0.0611949072286	-0.0392656029178	0.0597365544788	0.102403085284	0.00756505090461	0.0498824867437	0.0295612556079	0.0679986581987	-0.0222912866047	0.0918222101682	0.0184403446036	0.0189235246342	0.0509295821228	0.0428825830645	-0.0989680438821	-0.00644085898247	0.000566995040806	0.046298672514	-0.0675352829586	-0.0282933699814	-0.0141063173318	-0.0622543213769	-0.05832179122	-0.0477769248139	-0.0813341996197	0.0303695563847	0.010093061333
algoritma	0.0497693130051	-0.0359586815207	-0.00758598428438	0.0495189913315	-0.0040960451986	0.0851238442238	0.0529760646939	0.0365216382501	-0.0439815791888	-0.0485309128053	0.0749573485324	0.0224869865107	0.045408996893	-0.0932507718694	-0.0116933680286	0.0363415268666	0.0495332160792	-0.00788832978665	-0.0513709253048	0.0117842568736	-0.00280171912515	0.0388825191105	0.112121140955	0.0511912942185	-0.046520604572	0.0889331815661	-0.000177368091804	-0.0369590032011	0.0840441704035	-0.0628491489969	-0.0144075721744	0.0110095486053	0.0649716493106	-0.120792343838	0.026228231437	0.11243178705	0.0709873105836	-0.0360707999362	0.0708155970316	-0.00384000194991	-0.114144428994	-0.019653775518	-0.0587157437618	0.00489139644137	-0.144047633208	-0.157173664639	0.0359553022777	-0.0355195758613	-0.0759131543399	-0.0234209181776	0.151934891166	-0.0470082681131	-0.00670875344906	0.0299283233063	-0.0675522292264	-0.0251885393972	-0.0671643378151	-0.0220903939887	0.00690001162761	0.0131501147907	-0.0626697006002	-0.0670429817852	0.0213822562136	0.0904804451638	-0.0640094272653	0.00891107956996	-0.0984040937246	-0.0397176392413	-0.0105329934798	-0.109612841321	-0.0398641813988	0.0256418631745	-0.0210048178926	-0.0837539295648	-0.00546900687068	-0.0114161099426	-0.0469542207017	-0.118088168471	-0.0717781063711	-0.0112914057563	0.0488845130716	-0.00976049074722	0.00425098224081	-0.00248241737004	0.0108094255581	0.0283021871289	0.054719746201	-0.00646049955731	0.0139234180428	0.0202627965622	-0.0458302439011	-0.0695139331688	-0.0713556365211	0.0428980379461	0.0364870819107	0.110100504862	-0.0477015459255	0.0510101220564	0.00476060537431	0.038830850348	0.0743166087318	0.0701110705452	0.0264713383422	0.0657208390003	0.0680321579227	-0.0515202534797	-0.0163998302268	-0.00733326628226	-0.0876541329158	-0.0707191472016	-0.0182201721479	-0.0443545754989	-0.0392464104037	-0.107941672878	-0.0239647374277	0.0215730269496	0.000864798361623	0.0799665076158	0.0667088364948	-0.0282027612254	-0.0214784195596	-0.00984894643104	0.0665552445789	0.116834755306	-0.00292940977182	0.0880366762346	0.0880290150549	0.084626714706	0.00994100507919	0.0327802010577	-0.0384081300361	0.024583670123	0.047382896844	0.00285080076627	-0.060014247388	-0.00366583903041	-0.114972057375	0.0525276985836	-0.0690397503571	0.00956581059972	0.0634062788098	0.0727663248612	-0.0966199965491	0.0518682036262	0.0013874403437	-0.000637189138654	0.00183220201628	-0.00551382454976	-0.0333845767751	0.0805955346517	0.0358447347355	-0.0011496567797	-0.00926546363398	0.042984646107	-0.000677078837675	-0.0330735034215	0.0594803000097	0.137504543926	0.110837819724	0.0410957823017	0.00340843150245	0.090426227586	0.100916518609	0.00924549889486	-0.0990591245717	0.0649251813104	0.0569864755853	-0.0233618092311	0.0236830586937	0.0132640334359	0.114184576521	-0.0144014226046	0.00896053815583	-0.0359898050624	-0.00446407131866	-0.0556771881122	-0.000748843463317	-0.0572430514334	0.137133566042	-0.0341418180698	0.0101360542893	-0.174100377753	-0.112413370753	-0.00539312193012	-0.0306664050225	0.119121175395	-0.0419536944417	-0.110173359733	-0.00885411015524	-0.0166560303823	0.0403710494543	0.00198914938146	-0.08274022292	-0.0618159210773	0.0103142982602	-0.0249532181657	0.051164412392	-0.0213163685967	0.0633104772335	-0.0169399050755	-0.00522759036063	0.0183796558055	0.0168484961543	0.0104126626484	0.0669560023518	-0.00683583547395	0.00908008003313	0.012027333576	0.0686219950789	0.0173617362485	-0.0989760302402	0.0492293103483	0.0984122705604	0.0950831197428	-0.0176930594256	0.036781138606	-0.0575292701528	-0.0125106471878	0.0756027808055	-0.0743280268357	-0.0218769208941	-0.0466062477191	-0.166456362244	0.0608539494935	-0.115612060524	0.0590018372504	0.000168260128024	-0.0206163607327	-0.00417562570061	-0.0278774402879	-0.0634798703321	0.020334154556	0.0460352614844	-0.102888093687	0.00904467654401	0.0697488440851	0.0920531969165	0.0677009739729	-0.112192448856	-0.00974785348431	-0.0526086647279	0.0155735985374	-0.0851267539987	-0.0556527379	0.0392226460142	0.0504961379438	-0.0141008708496	-0.0716800580068	0.0262373003582	-0.0452877432576	0.0160822828818	-0.0570013043875	-0.0236775603243	-0.0527112059323	0.0214403515271	-0.0319677815909	0.0515841211972	0.0078635377678	-0.041867221088	0.0199793024234	0.0107915190243	0.0179490216425	0.119489869658	-0.00940085582865	0.0253466307828	0.00744170659479	-0.00357670194361	-0.00451535186563	0.0725895284113	0.0280798773795	-0.00381735786059	0.00372209566078	-0.0251445141346	-0.0133971193208	-0.0846495509142	0.0864049186666	0.0829629864469	0.0355416039624	0.0399216034124	0.0516199224784	0.0237853707994	-0.0693233686953	0.0323248544343	-0.0170771035405	0.0369135835302	-0.000909580902395	0.00498159418164	-0.0705146747408	-0.0173167053087	-0.0349932712461	-0.02469619959	0.00269729503865	0.0342467393964	0.00924016700859	-0.0192355613056	-0.0349014534831	-0.0409344665911	-0.0464773454274	0.0436323620009	0.0353870838652
özyinelemek	-0.00970004802903	-0.0106003862196	0.00344346917354	0.048247945725	0.117854308632	0.112487807277	0.0452354750364	0.0665185804513	-0.0317783381175	-0.0569238613081	0.02645046094	-0.0215547657181	0.0720066565164	-0.067793501082	0.0286676393668	0.0580707519345	-0.0334803840565	0.0203074952648	0.0111935879611	-0.0133827504105	-0.000599696843507	-0.0619858879473	0.0817111156633	0.038631708934	-0.00124350486496	0.0682356887438	0.110972964873	0.0542320035714	0.117657422155	-0.0840672980947	-0.0552153600747	-0.0179944557171	-0.0052247430917	-0.0356276301281	0.0297395409907	0.0577888707487	0.0373724961862	-0.0443855279492	0.099078009183	-0.0353696335312	-0.0347090417445	-0.0227034853446	-0.0701787323379	0.00420551666951	-0.080437270915	-0.16090143889	0.0377268918451	0.00936017678241	-0.0348026435123	0.0599212696433	0.175156880541	-0.0360291494356	-0.000665218080984	0.073142788319	-0.0641710050789	0.0172849112817	-0.00349080799864	-0.0303342887753	0.0328283993289	-0.0218294384919	-0.0217130280175	-0.0489644833959	-0.000256490361486	0.0301300862979	-0.0183391684345	-0.068518645812	-0.0595371796305	-0.0625130703178	0.0244440478731	-0.0614307326347	0.0293316739771	-0.0551712488968	-0.0158320397039	-0.0529915111771	-0.023376557367	-0.0135151592561	0.0126108478319	-0.105790439407	-0.0228235538192	-0.0329542775684	0.0396613283801	0.0372829827714	-0.0050046821079	-0.0414408378511	0.0102722022834	0.0311177463308	0.0293423252128	-0.00846256810545	-0.0153108822748	0.0186006078549	-0.0761939907736	0.00214972060103	-0.0876962493921	0.025383938728	0.0669370987005	0.0498165822478	0.0262333478739	0.0229422236466	-0.0398280901503	-0.00821507212073	0.0368166953441	-0.0507224752192	0.0143422685878	-0.00543578818109	0.0151567083285	-0.014421450304	-0.000232928537171	0.0064605661564	-0.0774204966968	-0.0587980484294	0.00841716586864	-0.0577124830991	0.0834475898388	-0.0943527337315	-0.019146510579	0.00338528545395	-0.042622156714	0.0983119809222	0.115684253854	0.0349823158713	-0.0425339343581	-0.0199897871953	0.0698269187968	0.091285393041	-0.019101000754	-0.00591627725592	0.0518876558462	0.0355672731261	0.00197701995998	0.0628422903288	-0.0503835722667	-0.0107510775346	0.0238881394429	0.0356794876592	-0.0194097789996	0.0480768804251	-0.0654383945329	0.0847547869411	-0.033282421697	0.0284177118879	0.0742208224726	0.0910357883268	-0.0380464289145	0.0646336345061	0.0524546458651	-0.0531163135342	0.023903524561	0.0107215983572	-0.04108902431	0.084461071049	0.0704466270527	-0.011877203631	0.0465114715495	0.0485169163222	-0.0083841793146	0.0204894269767	0.0285085593968	0.108480145379	0.0708199582416	0.0199667633122	0.070361632344	0.015286674921	0.0847397245877	0.0316815087025	-0.0438357520486	0.0194375367652	0.0300041004701	-0.01774442065	0.0247810142373	0.00496342201829	0.128022473088	-0.0154719418684	0.0196492704193	0.0258261263898	-0.0767168696145	-0.0818434491971	0.0316739775258	-0.127319921889	0.0892573547382	-0.0147901551986	-0.00969133338168	-0.209358105798	-0.140985779991	0.0686219305213	-0.0331528854574	0.0952241984664	-0.0298635902302	-0.0754311901599	0.0653028333519	-0.04887626104	-0.0629982932752	0.00430858620236	-0.011042641662	-0.0429793496671	-0.0993136274261	-0.0183444402582	0.0603096631856	-0.0541319465092	0.110929929578	-0.0429642873136	-0.0153748972769	0.00413827402021	0.0841576722154	0.0470246674489	-0.0217122103468	0.00315319610504	0.0203484863838	0.017421978698	0.0683465046298	-0.0081965023907	-0.0346627788018	0.0632349874007	0.0397473989712	0.00461255525366	0.0139852875835	0.0257182153862	-0.0238862028546	0.00915085310485	0.0113058024943	-0.0840898916249	-0.00930993307485	-0.0609906967377	-0.118202894526	0.0740745024677	-0.0942559043165	-0.000925043677875	0.0240923419203	-0.0816809909564	-0.013576559864	0.0480241621881	-0.0410071496602	0.0254380556121	0.0387973948219	-0.0423628690583	-0.0447384173728	0.0846859304683	0.0930874960423	0.119592934572	-0.157200403472	-0.0462898397774	0.00259050961571	0.050888161107	-0.0515261593636	-0.091459685988	-0.00356095553039	0.116184539165	0.0345659493868	0.00170075488019	0.0168484257966	-0.00492356057579	-0.0780681778949	-0.0176015649864	0.0113429204367	-0.0641968262563	0.00931266581612	-0.0223177815082	0.0759712831191	-0.0193121964669	-0.117446549207	0.0124198787079	0.0277624995131	0.0415613366787	0.0598190608163	0.00772558866913	0.000461661133027	0.0208107930462	-0.112202698444	0.000737409789272	0.0637697009479	0.0935985401769	0.0292428060918	0.0437948685178	0.0767695878516	-0.00554417018447	-0.0510118875817	-0.0168177631485	0.0809407838729	0.0835099910173	0.0509796111101	0.0349771516358	0.0320440810675	-0.123980382954	0.0502243416732	0.013272085148	0.0881158435237	-0.0243144040453	-0.0593424449181	-0.0979924438527	-0.078057419071	0.0487944939785	0.0807546562196	0.0857887099168	0.03821103892	0.0206509169233	-0.0288407488431	-0.0152477279785	-0.0842717157486	-0.0545924241716	0.00193400618208	-0.0431654773204
analiz	-0.0305658989535	-0.0893734620769	0.0053196864449	-0.000271209972648	0.036877084641	0.0911437974414	0.0462942866014	-0.0591999499508	-0.0649491839887	-0.0117173751118	0.0426430490669	0.0714412501781	0.00710002274986	-0.116736157875	-0.0224444370251	0.0795747707092	0.0054675778099	0.0516870858655	-0.0390973043796	-0.0193904453122	0.018354537931	0.00720700444075	0.0597925332735	0.0815256962801	-0.00593626339621	0.036112237551	0.0532010879945	-0.0367727515138	0.0443988221204	0.0289314204817	0.0623611465239	-0.0210968752013	0.0251104623745	-0.0970359073841	-0.0394125442291	0.00591941308761	0.0601465757042	0.107315589363	0.0252564143161	-0.00548402813938	0.0298354091192	-0.0330135166925	-0.0140026269215	0.0291481426226	-0.0577528883856	-0.0539721197707	-0.0300597513376	0.0256850824669	-0.110408210357	0.071983518029	0.125745683861	-0.0127590304196	0.0216432788509	0.0239459681415	0.0103498582055	-0.0127994641405	-0.000882280812884	0.0383038101564	0.0653603531627	0.0211453567653	-0.103465333334	0.0203487826297	-0.00734336799808	-0.0858449515904	-0.0237243687415	-0.108770540827	-0.0379191684456	-0.0217373229357	0.102135830531	-0.0959293611313	0.0522141120989	-0.00416396981579	-0.0717874788303	-0.0251935359168	0.120330390707	-0.0372801341658	0.0387325102616	-0.0659221364847	-0.0229368192902	-0.0457214638557	0.0394105377525	-0.0127874121189	0.0382476814596	0.0494329670557	-0.0254197135056	0.0597151786282	0.0166126924867	-0.0467488873654	0.0481124607847	0.0778585663395	-0.0329340034762	0.000537163912567	-0.0144324478457	-0.0771249300516	0.0977650897912	0.0526985650522	-0.00520680999777	0.0986521805906	0.0525218035308	0.072880312161	0.031409460764	0.04283903591	0.125660445167	0.0257436973227	0.0396134617106	0.0376553466065	0.0177876095759	-0.0468097246208	-0.0433352147594	-0.0531465673892	-0.056231665427	-0.0574310199973	0.000712373412623	-0.103401402485	-0.0449702738224	0.0635605244933	-0.0353917610879	0.0230224931355	-0.00097070032842	-0.00660640756924	-0.0348713582747	-0.121032584396	0.05814012667	0.0591412049372	0.0114707086475	0.165573732541	0.0240345024591	-0.034434379991	-0.0135285120025	0.0453213999154	-0.0414994828089	-0.000477072717006	-0.00630511580326	-0.00568431311278	0.0245937968433	-0.01540630428	-0.110439265409	0.0606996829892	-0.161454240111	0.0295185020807	0.146245527709	-0.0329415050955	-0.0175162584772	0.0269676217254	0.0292145625554	-0.000272685581169	0.0137456295889	-0.0524613163047	-0.00121461446832	0.156691490586	0.0336111878666	-0.014849529691	0.00252047389883	0.0749836751118	0.0449800195659	-0.0221104910224	-0.0122958004168	0.0633359548645	-0.04889141244	0.0239949052576	0.0407605228501	0.0725481825168	0.0574002135617	-0.0899208411783	0.0614269927336	0.0111912131842	-0.0462851857968	-0.0563230610212	-0.0169191128332	0.0755853921442	0.0549991272143	-0.0790944886534	-0.0232604441498	-0.0154367370604	-0.0405743322049	-0.0740682267435	-0.0179240894709	-0.0479976784773	0.0658604636533	0.0193198937486	0.0348259624729	-0.113577697539	-0.0940283810333	0.0271477987907	-0.0334674922607	0.13085137709	-0.0417324808825	-0.0975919799987	-0.0318290293533	-0.0478468812311	-0.00289147902713	0.0316090569251	-0.0489237420136	-0.128671819946	0.0390739432592	0.0123500294687	0.080603871645	-0.0262833656749	-0.0115038915587	0.0239054118676	-0.0597223745962	0.0589225618729	0.130111086671	0.0180189452135	-0.00722690738706	-0.0838689304375	0.0317327747807	0.00361988414392	0.0706856091889	-0.0570631123307	-0.120017631898	0.0986137913699	0.0190518865338	-0.0213794739761	-0.0177096348533	0.0782100127083	-0.0200634176374	-0.0349100165856	0.0784550412324	0.00577037004599	-0.0184254526931	-0.0216013110236	-0.0649449311942	0.0200415679554	-0.130924938149	-0.0113669634239	-0.0295186337009	0.0467864627346	0.0108333861614	-0.00524479338955	0.0239919664713	-0.0157151890682	0.0201692278355	-0.0344854903026	0.0113740460523	0.0627504073719	0.105409780267	0.145367694196	-0.143121975971	0.027989361583	-0.018104138572	0.0315426754547	0.00396765538464	-0.0444798438503	0.0337030287758	0.0550950841791	-0.0397872321633	-0.0136654515444	0.0414424616542	-0.0215682590014	-0.00617153228362	-0.0495497641756	-0.00951409342851	-0.0468773732353	0.0450876987707	-0.0394026193359	0.0769617714763	-0.0252508886813	-0.0147098419197	-0.0328226666927	-0.00593033610054	-0.0249528823014	0.0864734672238	-0.0971036910482	-0.0448740455738	0.0702465483814	-0.0297652102247	-0.0354579126618	0.0253765128359	0.0167681827237	-0.031230017847	-0.0586666337349	0.0974397568672	-0.0633242348183	-0.0355650251685	0.134528625698	-0.0419767116421	0.0488557616504	0.012400948931	0.021048641522	0.0806453400468	0.000557695199014	-0.0119976968573	0.0223955408575	0.0310662830678	-0.0159148715136	0.018680732236	-0.0748370143956	-0.0484025333923	0.15596984636	-0.0198322662681	0.0605047315582	-0.0406425173106	0.0105355077455	0.0204984450174	-0.0646447201762	-0.0869354979473	0.0143954853879	0.0581818224823	0.0337938116049
analitik	-0.00414041511452	-0.0886533528046	-0.00902481271415	-0.0324531579095	0.0343619833538	0.0601450909916	-0.0425703200136	-0.0167920635205	-0.00516645851238	-0.0839137529277	0.0503540920717	0.0583431696218	0.0188521162956	-0.0891795073203	-0.0332672767916	0.0786537862348	-0.0227338738502	0.0425782649468	-0.0957390756668	-0.00728271511285	0.0231841095308	0.0168282629511	0.084159993241	0.00561070129303	0.000309810301902	0.0573548935951	0.132665125729	-0.12251297435	0.0838264112781	-0.0649753472915	-0.0122529811294	0.0228659912491	0.0875510590943	-0.0608927565583	-0.0208352452805	0.0546417252197	0.0577828150627	0.00497900018155	-0.014769367716	-0.0535451665937	-0.0379918812648	-0.0218736533095	-0.0568158482938	0.0186423911056	-0.00307968761097	-0.093376115737	0.000922296250474	0.0123848880665	-0.0687494536323	0.0796413782606	0.156943999699	-0.0209062287862	0.0528670586539	-0.0349573324498	-0.0140156513723	0.0141821792765	-0.0477071665499	0.106390021527	0.054901014165	-0.0239152327995	-0.0889779901408	0.0450579785636	0.0380002997371	-0.0457779684028	-0.0552693749414	-0.101020614695	-0.077785631284	-0.0394672022159	0.037779840995	-0.0561398975876	0.0421781770531	0.0183197005412	-0.0069931038828	-0.0439628405547	0.0132272614461	-0.00379099590068	0.00520940324395	-0.0455847644647	-0.0209991424121	-0.00271815105864	0.00199824540415	0.00593243320395	0.0422159023319	-0.0176311852651	0.0475560023575	0.0348848862345	0.0465533623125	-0.0581742740223	0.00816076176856	0.0194542475233	-0.00626344858514	0.0213009446423	-0.0163200503045	-0.0581466509102	0.0429163192231	0.0476676523457	0.00941990213995	0.0247710283808	0.0303948940598	0.0231648996294	0.0299204500099	-0.00588503825749	0.0397675685704	-0.00636310225041	0.0175174253973	0.0593886386444	-0.0327339139591	-0.0429239484636	-0.000876151973298	-0.0398200051294	0.0151160509263	-0.0775251847987	-0.028248657175	-0.0518711007712	-0.00750738309103	0.106964056104	-0.00676070669479	0.0603672860435	0.0636347055857	-0.0180174773874	-0.0181571187959	-0.0784328013382	0.0136804383304	0.0264781998453	-0.0636085557063	0.109539056303	0.0575735107963	-0.0375658013381	-0.0344898494242	0.0414972962791	-0.0255578503666	-0.0541192011702	-0.0193798492748	0.0155020904945	0.0253031389655	-0.00342242466247	-0.0580479443231	0.052264559118	-0.131511795031	0.031945313571	0.108513054998	0.00878499148592	-0.0251708637203	0.0805574132724	0.0116586369886	0.011105227669	0.020848820067	-0.0430380187626	-0.0180804580829	0.0979531338686	0.0228218995007	-0.0098084146343	0.0498131526142	0.0294968535325	0.0257863592727	-0.0595738450339	-0.0429535709628	0.0191807944984	-0.0197774116268	0.0850923390427	0.0893747106456	0.0460021628419	0.0305101745142	-0.0569341278289	-0.0313327644839	-0.0332293936665	0.00252617306052	-0.00532368400475	0.00726324739577	-0.00533943707095	0.0296245512334	-0.113336839597	-0.009157508883	-0.0747948111707	-0.069428719112	-0.137333168592	0.00431852894115	-0.0658129852804	0.0836422571976	-0.00861720081088	0.0901360562297	-0.162674348529	-0.0971702159494	0.0811148213662	-0.0510148895279	0.1209923878	-0.0266035824664	-0.0757662502529	0.0550389192636	-0.0706378221889	-0.0266332154887	0.0420651590632	-0.0655783203665	-0.0734711642557	-0.00276583644239	0.0838074697155	0.0619736357798	-0.0119508737296	-0.0264874075494	0.0551336270764	-0.00465530992353	0.0155963773837	0.177961241827	0.0899056005518	-0.00625976550353	-0.0711918628939	0.0344336035064	0.0920744094653	0.029255138148	-0.00779727844452	-0.0753111265969	0.0771137319675	-0.00613649276206	0.0413593753959	-0.0311190405197	0.0537447370015	-0.0752911327253	-0.0137220571526	0.0755994592715	-0.033029507566	0.0421706530435	-0.0776146310664	-0.0933845342093	0.0680608752176	-0.0899392744408	-0.0200124501105	-0.0299092008264	-0.0119773287787	-0.0344213283216	0.00513826715344	0.0436073179485	0.0499443229349	0.0455305705496	-0.0222746988044	0.0520454157623	0.091660852016	0.0640340568631	0.164281750574	-0.199546204677	0.061966901002	-0.0585746776087	0.0379954591155	-0.0286276462726	-0.00205294968914	0.0768769624354	0.0635920870699	-0.000245593143268	-0.0653820647321	0.0357030565063	0.0265933224534	-0.0451098047834	0.0354040428951	0.0192264857565	-0.0389594268037	0.085454859504	-0.0676152223429	-0.00432853113849	-0.00583352773041	-0.0562522841921	0.0107354462754	0.0936370883768	-0.00368834841622	0.0856463797477	-0.0287485565803	-0.106374763046	0.0477847217255	0.0116030750717	-0.0235371539492	0.074827590597	0.085655850529	-0.0325884322355	-0.0133449201189	0.0420298014797	-0.0346570087138	-0.0436718771076	0.0988160272743	0.0297357276826	0.00768768045891	0.052372105101	0.0258810144701	0.0553981775669	-0.022030194801	0.0217888424631	-0.0302793505282	0.0152534824858	-0.0259121628174	-0.0176222301152	-0.138494917763	0.0153959230363	0.0737868569651	0.059489028926	0.083284472127	-0.0331531538772	-0.0779745207551	0.030898739624	-0.0440196652424	-0.114552256528	-0.00611045863663	0.121653764026	-0.0173456306864
ders	-0.0348012040994	-0.0801561607202	0.0437928725135	0.0310481724061	0.0556399513118	-0.00834352709482	-0.0326581385819	-0.0488057186981	0.0254758597612	-0.019078361413	0.00973409050634	0.0172073854047	0.106804312504	-0.108464761093	-0.0512236810282	0.115080303176	0.0286513131022	0.0141965804088	-0.0325157536683	-0.0598103576437	0.0817773581036	-0.0866183883071	0.0695858558753	-0.0309427359118	-0.0774697460136	0.0611469383252	-0.0511081174263	-0.0305274945847	0.0977560226937	-0.039153317531	0.0177634340528	-0.0194825975525	0.0343738527671	-0.112262209191	-0.0530640885329	0.0466954107829	0.0083443608719	-0.0395923478834	-0.00599408494006	-0.0353460689929	0.000397969552419	0.0236624272123	0.0338938906958	-0.0440864634147	-0.0427850589626	0.0154202652242	-0.00779778129019	0.0294243689757	-0.0103295247439	0.01093390766	0.0753513704109	-0.0192349273162	-0.0379870707813	-0.00116094517298	-0.0448369257993	-0.00159433460016	-0.0759957131377	0.010537442248	-0.0730891364585	0.0352556674427	-0.14605516389	0.00717051486371	0.0278769876576	0.0622163510514	-0.0624090700382	-0.0260454865463	0.0530806004216	-0.086707347366	-0.0235550923988	-0.11057276682	-0.0114783698012	-0.0372435233753	-0.0332812714137	-0.0411231692377	0.00975802037534	-0.0589721734076	0.0368985704657	0.055833225379	-0.0476528134985	0.0268619942129	0.0184813815634	-0.0133108028096	0.0326663339938	-0.0566765237719	0.0505018798555	0.0253493428907	0.0868177082852	-0.0114384167695	-0.0549268862761	0.0250821797205	-0.00712602580387	-0.0325120212307	-0.138089914988	-0.0387579686601	0.0122643274271	0.0568262650967	0.0512819983701	0.123406154986	-0.0805734879054	0.0349603211795	0.0568464015174	0.0209650615104	0.00676507010829	-0.00832315297069	-0.0379979462909	0.107848687194	0.0195479798084	0.00495320574142	0.0174822657483	-0.0911608459223	-0.0666999786726	-0.0791879660362	-0.024524393256	-0.0092287754934	0.0121584191145	0.0351043960579	-0.0299524998286	0.016652776696	-0.00886753456145	-0.0110455171113	-0.0294314340093	-0.135707758537	0.0436661913521	0.0424455471574	-0.0785729018888	0.074527085118	0.0929092376774	-0.065151237232	-0.0301329811257	0.145251274215	0.0290167035795	0.0339903296619	-0.00997562638586	0.0167060030092	0.0108942325672	-0.0429064796204	-0.0748675049505	0.166840155229	-0.0923336009104	0.0610773315562	0.038224684292	-0.162849441438	0.0198360609779	-0.0506079416925	-0.0639045516694	0.10133495492	-0.0316620937735	-0.0161241997449	0.0760084098054	0.0595167739202	-0.00848309110729	-0.0461547525775	-0.00659942441282	0.0278358807843	-0.0443380223643	0.0198852533875	0.0319910535075	0.0411032409723	0.0240877795372	-0.0892827252472	0.148227917039	0.052168535895	-0.104758195455	0.00148655600144	-0.103764872614	-0.0647337796105	-0.0246364214102	-0.0954051656819	-0.0932761255162	0.0497142809939	0.0404380562509	0.0284076900883	0.0529575154794	-0.0385828164544	0.0583590328215	-0.108313481733	0.0849116513521	0.0155573630765	0.0780363974159	-0.0494865731175	0.0684558345053	-0.0807125283799	0.0268793978193	0.102035327674	-0.0430328848366	0.0281404851674	0.0626582947789	-0.10427580981	0.0364341279559	-0.0210443100109	-0.00415718768117	0.0730760509954	-0.0506014107246	-0.0267615478202	-0.108445626768	0.0543049796457	0.0163075812576	-0.0799922006429	0.0328587444961	-0.0507003905006	-0.110063895225	-0.0505601413704	0.068400860805	0.0940552981608	-0.0808801562948	-0.0632001218829	0.047313075155	-0.00962176447486	0.0853225201446	-0.0293270190705	0.0483229877233	0.0817526386806	0.0166889548617	0.0264839743794	-0.0417976832984	-0.0173802598666	-0.0450597949854	0.0412724595597	0.0304076530352	-0.102369016758	0.047012071936	0.0113990602897	-0.0348248475756	0.0379219800225	-0.071155973496	-0.0644796800114	-0.0798715065343	0.0616755188651	-0.0979038092738	0.0515655938356	0.0171679619325	-0.0245892495413	0.0170267942081	-0.013065282593	0.00612181955814	0.160748645776	0.0475991034439	0.0320973940811	-0.0169385518092	0.000134055516924	0.0478876662814	-0.0386868497752	0.0299348437247	0.0217603801374	0.00941405939278	0.0739045619576	-0.0518294360137	-0.0416985488017	-0.0116809777534	-0.00290359950177	0.0144746996389	-0.0106806238098	0.0371425134881	0.0391374108074	0.112831813845	-0.0431414010704	-0.0851834031074	-0.0437209955371	-0.0730957320266	0.0587032768072	0.0443567667972	0.0259487994678	0.017750356166	-0.0745319955065	-0.040309250232	0.0579425689615	0.0210247912769	0.00574236903664	-0.00398429974102	0.0387302756488	0.0499762940385	0.0124266075087	-0.0302719342707	0.0592290671908	-0.116688010748	0.0216893729067	-0.0686475015906	-0.0129997842965	0.0741691148541	-1.54254144726e-05	0.0462781291763	0.0368444301039	-0.0337407058376	0.0233587999024	0.00695335040532	-0.00251382775383	0.000813745634984	0.00576743698007	0.0639995513751	0.0354778866425	0.122893192065	0.00574047953005	-0.00376970922897	-0.0172070033882	-0.0339143398663	0.0681000554532	-0.040011389761	-0.0665468865283	0.0328142804788	0.0667373792117
okul	-0.0425568635904	-0.0575046839325	0.0525587027219	0.0512704470844	0.0767785303487	0.020353866659	0.00945353338611	-0.0477397036104	0.00255275518211	-0.00264953330446	0.0155553979589	-0.0598168766649	0.108009604866	-0.0873714584836	-0.109235651557	0.0299263534416	0.00820842450902	0.00967108561361	-0.0368737390997	-0.0709364066598	0.10605323122	-0.0939843319015	0.0109825181833	-0.0456004445285	-0.0830620397549	0.0932313871121	-0.0682146928956	-0.0102974774201	0.0689796177382	-0.0490898606066	-0.0236631965743	-0.000384775125492	0.00298228086259	-0.0822221585226	-0.0103648218078	0.0434692432329	0.0226906613181	-0.0164471068266	0.0110470882108	-0.0822345466026	0.0185897026785	0.0487502197743	0.0251841262368	-0.0314434591363	-0.0579743566794	0.0750688597068	0.0259545549044	0.0516802949716	0.0383944010445	0.0413617338121	0.0424791324123	-0.0269923609464	0.0515504481761	-0.0237747263987	-0.0932659401058	0.0599286650737	-0.0869190638034	0.0224744572005	-0.0826254715291	0.0611059174174	-0.116293137033	0.0273941144545	0.0243048852508	-0.044617578069	-0.0802463410945	0.025316687313	0.104573222694	-0.0527819062189	-0.0118442503746	-0.126828903443	-0.0721490499707	-0.139129724951	-0.0870118234203	-0.039793563763	0.0469932253194	-0.0544322288697	0.00961825275255	0.0353964362914	-0.0958224358008	-0.00712183228178	-0.0235185619435	0.0435970065111	0.0142273226527	-0.0338079047698	-0.0111806965827	-0.00346553314743	4.39074154816e-05	0.0298240007974	-0.0591218214901	0.030333078142	-2.99721097646e-05	-0.0786428596228	-0.131845824707	-0.0316368768985	0.0479923757509	0.0334068873427	0.0320695400991	0.129087909973	-0.0977483564148	0.0442726786104	-0.0121994820811	0.0171564775918	-0.0614069682557	0.0197373045732	-0.0472123819409	0.0596155603743	0.0584164142597	-0.0566193483445	-0.00416015506481	-0.0821655599181	-0.0470826093814	-0.0729844416514	-0.000392101708443	-0.0612220726501	0.0922330064404	0.0460674184069	0.039341503787	0.0299310387868	0.0682062606443	-0.032838104247	-0.035796546675	-0.0888493058606	0.0365047088004	0.0768962737353	-0.0386739673946	0.0883417667567	0.0455035912854	0.00141956260756	-0.0289242769527	0.0907842655146	0.052991069949	-0.0318991454884	0.00165151168267	-0.047614423431	0.0501407883265	-0.0322167163356	-0.0723020175861	0.168817045587	-0.0717704209358	0.0889218534189	0.0331135341874	-0.155945686548	0.00463254800045	-0.024306865848	-0.0975932656667	0.116882110839	-0.0585538048148	0.0562065947499	-0.00151033883013	0.010274981741	-0.0306478985979	-0.100059280211	0.0265581699282	0.0511591305209	0.00165693910251	0.013716098292	-0.00645612547445	0.0675549166062	0.0597415760667	-0.113842759726	0.150775886489	0.00474826969034	-0.120511145294	0.047450642418	-0.044806806991	-0.0889769241488	0.0141281406651	-0.0630022720647	-0.0538688880354	0.0347592013758	0.0319820440748	-0.00731619561829	0.048657890104	-0.0593788371334	0.0845427018781	-0.124470129543	0.0536899275999	-0.0107494256853	-0.0186898149137	-0.0148417404853	-0.00260298752817	-0.020750411431	0.0191401024444	0.0583139139141	-0.03442421886	-0.0195343211834	0.0443942715378	-0.0688825144159	0.00559381295226	0.0469614254227	-0.0372419400735	0.101615419306	-0.0879204073509	0.0330684048319	-0.106985473347	-0.00565828673838	-0.057039875485	-0.0580244666973	0.0360121601754	-0.0330388822481	-0.0961314976204	-0.0399727610059	0.0755671842128	0.139672306247	-0.0610242289835	-0.0398873935942	0.0710726041872	-0.00125858229841	0.0772743797788	-0.012493127414	0.0724359674264	-0.0062773755884	0.0165140365373	-0.00563466492103	-0.0269204150964	-0.0506613105971	-0.0594432506402	0.0313227908624	0.0424217940165	-0.0908923461189	0.0472872153174	0.0181242193141	0.0510509839862	0.0762230769117	-0.0752754044842	-0.0688758728478	-0.0128256189849	0.0398398206153	-0.0624512205574	0.0336180518201	0.02983816529	0.0316788169599	-0.0240303203126	-0.0154618549395	0.0560892326469	0.133949269557	-0.0210637704337	0.0228144967266	-0.0412433463618	0.0191387611445	-0.00554767189207	-0.0620781545137	0.0210413723374	0.0542449383609	-0.0109469088749	0.00375564437834	-0.0225790098677	0.00353299315611	-0.0302251894725	0.0815489030179	0.0190348609892	-0.0436568579998	0.019158038246	0.055841610527	0.0788559526381	-0.0832127308565	-0.0412584361644	-0.0381082387924	-0.0460913126399	0.0701965659383	0.0522339009281	-0.0398016273745	0.0440829421664	-0.0127118874536	0.0307816324375	0.0646843255421	0.00993119154118	0.034985138847	-0.0169070148414	0.0544600509609	0.0709054438804	-0.00255486935279	0.054089901927	0.0654074170679	-0.0832444502667	0.036358001498	-0.0535313577776	0.00554582287037	0.0125424315959	0.0163582925352	0.0229472928978	0.037828936735	0.00188207259298	0.0783760156859	0.0296314245736	0.00700986357736	0.0268538858206	0.0268379364957	0.0663706757745	0.0370261897745	0.119153736633	0.0283331098887	0.0345179865853	-0.0063597258958	-0.0129219325685	-0.0069363267479	-0.0343007622121	-0.0530346796498	0.0871917953606	-0.00353977486219
öğretmen	-0.0239560990913	-0.0911022119328	0.0583059996882	0.0459636354753	0.0374503512559	-0.0277302449343	-0.0102495369803	-0.016515420048	0.0213935010399	-0.0322989246278	0.0202558780251	-0.000569985537522	0.0865305203831	-0.0696180828782	-0.0386850181318	0.0532182634809	0.0203324204674	0.012315231459	-0.0431369892902	-0.00999341545056	0.0912759837377	-0.0740708455569	0.0327926838777	-0.0128896082598	-0.0825333957733	0.0471510200038	-0.016549112447	-0.0165864905404	0.0925404041012	-0.0440407843423	0.0345420271621	-0.037701538965	0.0175788326412	-0.0552183342069	-0.0417312522387	-0.00317472112463	0.00496130393418	0.00871683147919	0.0364211696443	-0.109942344883	-0.00855220678828	0.0230444949779	0.00385684143077	-0.00693601913072	0.0330582029836	0.0637678097275	-0.014620053843	0.0764543607379	-0.0132946299732	0.0787579735255	0.0348254750718	0.00269683792141	0.0368852414131	-0.0222964296038	-0.0681543186804	0.0277029622449	-0.0726812112337	0.0835216669498	-0.052895750389	-0.0138099894254	-0.112888484115	0.00325309682529	0.0678052938466	-0.00451959079727	-0.0515939911942	0.0278249205705	0.0523873419836	-0.0508927946242	-0.0137095573698	-0.0855675491555	-0.0705303740451	-0.0754178647123	-0.0902028567163	-0.0715535917091	-0.00818564368065	-0.0302864712135	0.00691766112771	0.0310105606778	-0.00107641617588	-0.00939662910947	0.00333349107675	0.0480763726483	0.0840769720546	-0.0833087107116	0.061129232573	0.0300565334501	0.0188334935956	0.0465943905849	-0.0246092515719	0.002816024821	0.0212694360049	-0.0887477183447	-0.143897148454	-0.0531044784451	-0.0201834788249	-0.0130165071812	0.0288244569027	0.1496047412	-0.105826073822	0.00534962059668	0.00548224416154	0.039294253307	-0.0651810348389	0.048279468707	-0.00688512372058	0.093296051332	-0.00190062475824	0.0171012657671	0.00266568494237	-0.126273864458	-0.0507642758063	-0.0609029425325	0.0141108798595	-0.0323846405796	0.0341881015285	-0.0308719100842	0.0311763243522	-0.0247274454101	0.0159639096376	-0.0165795321366	-0.0205969311696	-0.0996871897486	0.0829600983751	0.0643740416591	-0.05374423422	0.0325526712482	0.0732817905955	-0.0289813098767	-0.0321357758255	0.0587961483857	0.0306037829368	-0.0634675972461	0.0306887297195	-0.056259015526	0.0451313123596	-0.0369702377791	-0.0602924737016	0.183299755294	-0.076660574061	0.073574054715	0.0736669610522	-0.135251098056	0.0172255374342	-0.04216158607	-0.0552429389778	0.0906831351222	-0.0536288256961	0.0591393460268	0.0633460748739	0.0390641060874	0.00240613557238	-0.059244009333	-0.0112899293422	0.0561280538049	-0.0208115551791	0.0291109919155	0.0231510199955	0.0505928935556	0.00034751379717	-0.0908933656719	0.141448770809	0.00882700446329	-0.133466237483	-0.00370311949448	-0.0681318680995	-0.0640290486967	-0.0346918615836	-0.0978630739586	-0.0737202962625	0.0114001908929	0.0737852392728	0.0220386210203	0.036287615433	-0.0270464677359	0.060257160325	-0.132639290672	0.0866954379714	-0.0594528608245	-0.0124800914441	0.0066389191019	0.0271830931849	0.026692804594	0.0730057812319	0.110314460488	-0.0514159197263	0.023362895303	0.0665986614303	-0.0939350173302	0.0461422547311	-0.0268144484141	-0.0559159999695	0.0987254055572	-0.0866444992892	0.0142505073319	-0.0341121438348	-0.00600915325305	-0.0247752574133	-0.0196910776073	0.0192959382152	-0.010475704806	-0.0844512631189	-0.141469273623	0.122141989639	0.145581796296	-0.00654779769473	0.00400392715029	0.0525406945518	0.0806537539711	0.0917248454175	-0.036974197472	0.0855816637734	0.051501182838	0.0887804959976	0.0217462366037	0.0723292779994	-0.0637464271761	-0.0220231126294	0.0224002097549	0.00718877457265	-0.14180056143	0.011548903936	0.00840947791663	0.0372476479239	0.0661840059748	0.0129199204492	-0.0385682251448	-0.0177305500613	0.0472510664113	-0.100023582339	0.0482870258069	0.0222877765797	-0.0105233294944	-0.0347541144715	0.0123044939822	0.0172950601036	0.131656027343	-0.0192633242712	0.020406697837	-0.0183395608597	-0.00731388811037	-0.00889885322577	-0.0749777780972	-0.0336710455381	-0.00961565146066	0.0233986828245	0.0284751942295	-0.0222220573913	0.0182901027875	-0.039235542036	0.0940910374645	0.0518795453845	0.0150319793558	0.0707483994991	0.0398870541523	0.0475672156111	-0.0957578917934	-0.163172966191	0.00471604669891	-0.0300304193165	0.0437468447802	0.0634654015972	-0.0151615568581	0.0708334476453	-0.0324235816292	-0.0327280646932	0.0381781885823	0.0137368291105	0.019330621967	-0.00320570171268	0.0205767979646	0.102356492182	-0.00681339909078	0.0469078590766	0.0345633019694	-0.0691098575334	0.0352266638749	-0.0395855320361	-0.0309944487057	0.081262763197	0.0361164061309	0.0691674268533	0.0213413888505	0.0031440841505	0.068448474777	0.0721260211959	0.0324000878874	-0.0045169753984	0.0222727195645	0.0589650141602	0.00759147528381	0.149151273361	0.00606189391638	0.0228286779697	-0.0205228929995	-0.00827122828212	-0.0140113921538	-0.0300340941322	0.00413546765751	0.0571150227041	0.0336643045061
proje	-0.0124456313459	-0.0840373396785	0.0390870841201	0.047222178201	-0.017879050777	0.0657103562206	-0.0271453968796	0.00114308892951	-0.0829343093112	0.0150286717054	-0.0310709871758	0.0376543112927	0.0246838152077	-0.0915827782551	-0.0162737227742	0.0581502998408	0.0785992096775	0.160302560483	-0.0588175511606	-0.109330699418	0.157887373258	-0.0905287118897	0.00994468520167	9.48685964978e-05	-0.0447041211514	0.0417534576501	-0.0201533451929	-0.0100987178821	-0.043142147243	-0.0520299004351	0.0360243161587	-0.0518310311658	0.0269031364692	0.0302985547408	0.0476376615109	0.0887778337582	-0.00406248851571	-0.0427485953305	0.0525821432035	-0.000159375405219	-0.0207880568705	0.0502116518206	-0.102065284389	0.020214062365	-0.0413177775321	0.0816955012383	0.00411743500893	-0.030511253616	-0.0158629304092	0.0774967535485	0.138723113091	-0.0348927973947	0.0432630673391	-0.0512314790576	-0.0334369355936	0.0461065192546	-0.061380517026	0.0301175658566	-0.0418317468034	-0.000207358120615	-0.0697381760722	0.0111637063922	0.100497800125	-0.064141992918	-0.0141314484185	0.0121425314494	0.0660043244556	-0.0475663051652	0.0153234912964	-0.164894292846	-0.000326234964941	-0.0759882367016	-0.112356246358	0.0352347576783	0.117051043503	-0.0587694584971	0.000848652437277	0.00811944264844	-0.0196329875385	0.0448474990958	-0.00554527330049	0.0210621034133	0.012246016863	0.0298248942855	-0.0954690253893	0.0797262486559	0.0945121875719	-0.0693666733598	0.123404946403	0.0947412788932	-0.0089927219037	-0.0348978983432	-0.0269599246319	-0.00292280259316	0.0439065314474	0.086621138344	0.00395424292732	0.0524009176501	0.0300213338649	0.0546654079104	0.0279158017731	-0.0207094094857	0.0301276418614	-0.0109072795326	0.00337878653776	-0.00280322152253	0.0430650694087	-0.0946115632269	-0.0274172133811	-0.0324645256223	-0.0381135700558	-0.0519038228221	-0.0637945324412	-0.120467178871	0.0350812076952	0.0661489828688	0.00180275729462	-0.0343654315427	0.0413677727007	-0.00856545402879	-0.0883054820737	-0.0590831197145	0.123128904933	0.126410321113	-0.0152204803048	0.124374411244	0.047713631674	-0.00910936230322	0.0295413768267	0.0585540472725	-0.0180036913678	0.0179279292266	0.0277725706861	0.00458470591456	0.0393995076009	-0.0820579055766	-0.0856904393935	-0.0368136049414	-0.147414627882	0.0438270239235	0.023386629926	-0.149588100909	0.0624344034718	-0.0620810700268	-0.0459891047349	0.105734364658	-0.101061076956	-0.00109584940567	0.0149901642612	-0.0170388318413	0.00567014280897	-0.0719120351231	-0.0532466022726	-0.00491130136643	-0.0454061723572	0.0762342152992	-0.064434501343	0.0877679658638	0.0956230843577	0.0420492112872	0.0867729019142	0.0670867255342	0.0506177524633	0.0944366222012	-0.0324682032371	0.0575693859823	0.0160925708736	-0.0987081387332	0.0165518877343	-0.0364503792996	0.084672387759	0.0133325188854	0.0804257713977	-0.0269630636292	0.0559681914592	-0.0641494662359	0.0362722754252	-0.0289845633539	0.0953900931406	-0.108751065994	-0.0243168795967	-0.08014589977	-0.0634602030477	-0.0101931532462	-0.0365956585123	0.0323620585681	0.0506407977794	-0.0297903502789	-0.00941561493727	0.0240113585657	-0.0650096419661	0.0348009679325	-0.00299944480993	0.0865451566182	-0.0223773782687	-0.0222696896915	0.0958620634684	-0.044686046433	0.0583882256195	-0.0746044060731	-0.00253083599356	0.0330369940535	0.0272442444688	0.0741727492277	-0.00811948918379	-0.0252145778552	0.0209875544577	-0.059588680787	0.0826351168283	-0.0653724758816	0.00479939803216	-0.0328436613243	0.0179531947999	-0.0251508631067	-0.100843455367	0.0483943644532	-0.0929039689331	0.0126037846473	0.0613141690245	-0.0755221222834	0.0144614581651	0.102427334851	-0.0348724697171	-0.0221350786856	-0.047012193335	-0.0120382160732	-0.000997586450797	0.0840242475608	-0.0307167207939	0.0856994747692	0.00276394050267	-0.0255269130094	-0.057244423027	-0.0135967470917	0.0141639004342	0.0771971143785	-0.00116845298927	0.110529698638	-0.0315481597148	0.11097604445	-0.0160221543606	-0.00851905582259	-0.00676223226471	-0.011644842758	0.0549656033012	-0.0117120602573	-0.0958526428473	0.033528958534	0.0265892038174	0.0586224200149	0.098917431143	-0.0713034271579	-0.0289543849075	0.0539783876223	-0.0286134109919	0.0111792816051	0.0233812591245	-0.0432042171031	-0.0636391012633	-0.00607742915153	0.0291556317164	-0.0703317153984	0.0188756935583	-0.0354543957906	0.0082771871128	-0.0188824711274	-0.050558142366	-0.0132688271582	0.0500793706181	0.0360411391151	0.0265596506299	-0.0627878048406	-0.0372449184102	-0.00924179931501	0.00876513812031	0.0139750149548	0.0259659632719	-0.059030229114	-0.0135454528742	-0.01158701267	-0.0328897941622	0.0856576458418	0.0438355270597	-0.0577805398061	0.0104911365616	0.0701230607433	-0.0196170553385	0.000737966903289	0.000215783585425	0.0259927290049	0.0885561157619	-0.0604712850005	-0.0525457057915	-0.0446551641491	0.0136976559766	-0.0459230789814	0.00472485742437	-0.0684230261751	0.0645455587968	0.0295974883474
plan	-0.0812066310503	-0.0762774250429	0.024638026692	0.033849537349	-0.0386665675694	0.0408770357281	-0.0284432604114	-0.00780885390364	-0.0576647019855	0.0259039394827	0.0099447322549	-0.0499872678633	0.0170549499866	-0.0543305809303	-0.0674585531898	0.104848409869	0.0809620226506	0.126351011875	0.0108793503591	-0.0884390730745	0.100066412516	-0.00510692863043	0.0060225619146	0.043939062966	-0.0381062853579	0.00227026710285	-0.0157411987713	-0.072307283201	0.0227988303186	-0.0192790348528	0.0507448735805	-0.00717763808644	0.0114872513715	-0.0262628081418	0.00646494455244	0.109800445267	0.0904018042865	0.00874066797125	0.005497553053	-0.00168287685865	-0.00867013103165	0.0118748396047	-0.115373775266	0.00776005477345	-0.0305848800944	0.0235367294948	-0.00801857418016	-0.0299513725065	0.00750606658987	0.0660289835135	0.0375977213683	-0.0128101910738	0.0497452720444	-0.00925154134509	-0.039854700291	0.0767467626169	0.00739672529976	-0.0652920771602	-0.048308971482	-0.00196916659625	-0.0275569643757	-0.0815909552767	0.0079433730993	-0.00457782804711	-0.0225239737862	-0.0669277313552	0.0210402008461	-0.0585824073371	0.0444184223076	-0.114341691956	0.0285415190088	-0.122317462235	-0.00425753814091	0.0286258983263	0.198866749543	-0.0602879460313	0.0631233963735	-0.0359425796136	-0.019209845071	0.0740950035151	-0.0127021902457	0.0594505117716	0.111415743363	0.0782688882221	-0.0856041150597	0.0103074712462	0.0592528786911	-0.0100261895437	0.0681362071155	0.0468441316633	-0.0496074307357	0.00931784213256	-0.0246321861028	-0.00234546979525	0.0663914284779	0.0828151497552	0.0300477441569	0.0627470619979	0.0377477506964	0.0620651357621	0.07107366461	-0.0158415630722	0.0904258446254	-0.0517233601793	-0.0314188626821	0.0624290184032	0.0221106350055	-0.0835841605095	-0.0180717772431	-0.072188903456	-0.105211965435	-0.0443616767576	0.0311499501726	-0.0865493533124	-0.00631494904389	0.133974751152	-0.0590666215038	-0.0817875714975	0.0803315649614	-0.00656052918053	-0.0680224633894	-0.0873841033796	0.0221494149105	0.0651741711179	-0.0296865205592	0.098895696471	-0.0201923041351	-0.110356018714	-0.000874748524531	0.068350865518	0.0150108064499	0.0434542520749	-0.0135000533562	0.00213350203133	0.0186063704634	0.0162794596555	-0.0696555283888	0.0165516591873	-0.109761836594	0.0611485840812	0.0887194313409	-0.161632435298	-0.0280023771879	0.0489502579803	-0.0614927827655	0.0874638685499	-0.0851015833417	-0.0209759263563	0.0178739035436	-0.0294918502181	0.0377977681294	-0.087468615107	0.0607935794443	0.0136545922312	-0.0616536924493	0.0772381586065	-0.0291405902588	0.0822580069853	0.0863273859796	0.0220542292184	0.0564804017249	0.0586289627251	-0.0509427453508	0.00525033420577	-0.0604289080561	0.0443132202048	-0.058913655357	-0.0829965284659	-0.0328578730855	-0.101037786338	0.112905863053	0.0448075854933	0.00547741423313	-0.0716287815362	0.0900451490684	-0.0790408253996	0.0331762024345	-0.0296065360831	0.0476490669141	-0.0781060633005	-0.0064075248788	-0.147210081824	-0.13697074732	0.0488862689601	-0.0549132972278	0.047077690534	0.0350506452486	-0.107381547064	-0.0697332716195	0.0297273657113	-0.101771235368	0.0950022844273	0.0183873937201	-0.0180393431115	0.0193591123444	0.018592332281	0.046398860047	-0.0447238280129	-0.00778413576405	-0.0616545041214	0.0220434602406	-0.0171345020476	-0.0185179420551	0.056020717556	-0.0293354065466	-0.0425036430767	-0.0220936495636	0.0493102847928	0.119025827936	-0.0483664785422	-0.0282425180319	0.0727606408896	0.0655044685554	0.055065429345	-0.0502683948353	-0.00897486470157	-0.0548636557382	-0.0121331227504	0.0742998388237	-0.121402536395	0.0513609954968	0.0652319900453	0.0258384495276	-0.0636596404349	-0.001020791376	-0.0319470035631	-0.0540850719738	0.0485341258536	0.032249924317	-0.0419600132856	0.0614840223356	-0.0468619406868	-0.016019650312	-0.0712692419541	-0.0508312044429	0.068519976631	0.0629544440411	0.0999161097248	-0.0894033558879	0.0738073849141	-0.0346019662504	-0.00572554918489	0.00426808322795	0.0466009511729	-0.00227639595363	-0.0359386630233	0.00949791129589	0.0344976790652	-0.0183873983051	0.043984581293	0.0766392764606	0.00361672287101	-0.00493534203082	0.0103923630702	-0.0441850815327	-0.00984120978678	0.047306827274	-0.0212691700629	-0.0760423908329	0.0347393296122	0.0270651229878	-0.0320243478578	0.084458502971	-0.0803352040715	0.00370756527753	-0.0175766588427	0.00593136410648	-0.017612846572	0.0182128076788	-0.0583071115803	0.0267508363049	-0.0783190716209	0.075762452044	0.0303863330793	-0.00500634139204	0.0152722965175	-0.0751192286318	-0.02740628201	0.0932434442969	0.0266970391039	-0.0562627237932	0.0686895452176	0.0239136249012	-0.0382280467294	0.00629497705257	-0.0123294710012	0.0106513681864	0.0110545533711	-0.00136526522531	0.0460592065904	0.0461912714765	-0.0154261104259	0.0132022684258	-0.0264317839989	-0.0348139085927	-3.22106267667e-05	-0.0309307553492	-0.123064262317	0.0631545554204	-0.022336894032